<Nnet>
<Splice> 80 80
[ 0 ]
<AddShift> 80 80
<LearnRateCoef> 0 [ -10.003293808108493 -9.952167084912217 -10.218572465585279 -10.83980267173453 -11.612653105032303 -12.18872170592527 -12.624369781761425 -12.824932464283522 -12.768311765501055 -12.516986863833864 -12.261162305135253 -12.059217174001304 -12.251329235600005 -12.512862913137559 -12.58841702733533 -12.538489774963557 -12.358212330129263 -12.10473822348043 -12.065602111771055 -11.768215158190335 -11.597822166628617 -11.916137711280154 -11.807056838930523 -11.94299139996694 -11.823806831136944 -11.881355448699873 -11.785563475643919 -11.875779914726875 -11.894519661232243 -11.969481594686187 -12.006288395922462 -12.005194000809018 -12.021808048149449 -12.100411214286408 -12.210911391828242 -12.338969332625613 -12.445429853772348 -12.492902726715537 -12.482782245880713 -12.351630488987654 -12.390483354804635 -12.253473945185316 -12.263493929363726 -12.251115709385747 -12.322809116759462 -12.43003307471872 -12.544101785067939 -12.670749570809297 -12.802979708705067 -12.92274120994613 -12.954255626527129 -12.961953725027788 -12.989181312756239 -13.040467714554419 -13.052008126480738 -13.050573919995148 -12.992571191144137 -12.927445147380647 -12.86802608360213 -12.710697000302607 -12.484616766733264 -12.27160712666228 -12.259049679908241 -12.283739338024402 -12.317177817899703 -12.420502036051483 -12.512323906736649 -12.576319803562537 -12.645272626639125 -12.735680753249937 -12.798235015866638 -12.866876101840226 -12.964614726113748 -13.062398823440999 -13.156430450983173 -13.269752589284925 -13.3075333483678 -13.235714208540534 -12.877711788310348 -11.200158470705391 ]
<Rescale> 80 80
<LearnRateCoef> 0 [ 0.6250516516156506 0.5053136981121757 0.33711135241870077 0.3149587043223809 0.2942247046525542 0.2837038320603649 0.27016520799150645 0.25650231050572997 0.2466371502764904 0.2460896375687174 0.24745048094973418 0.24429317084727528 0.23770718507049776 0.23042404395732016 0.22735467035817694 0.2274472577208897 0.23120639619378 0.23495760314106032 0.23863530504922467 0.2420791274142258 0.24519989178635967 0.24668783439557312 0.24836437070026038 0.2516155237224185 0.2559658868333224 0.26144387642141714 0.26477777456685003 0.26619760884177845 0.26586120730388524 0.2652527156202535 0.2643781042254049 0.26447198057718946 0.2649342807663122 0.26416783081753675 0.26284105018129106 0.2621119490557488 0.26259074616432326 0.26429640548818684 0.26654145274244584 0.27030259168048165 0.27455619836925177 0.27882940667565087 0.28378887238446127 0.28694899797778456 0.28768886505209723 0.2869945650147589 0.28681480006950305 0.2872052537782769 0.28673562918976786 0.2859596944994633 0.2852478794523533 0.28461214476564395 0.2843433321134406 0.28431134836011135 0.28590292067413164 0.28756269948933294 0.289985152106891 0.29381503212109233 0.2985614875972633 0.30604442817845684 0.3184894264806748 0.32935027119463295 0.33336267886704596 0.3337680546900766 0.3306478647689095 0.3245244033431817 0.3195251648555395 0.3136523856333401 0.30789356880863344 0.3041714979426976 0.30249534412092366 0.30091708916659166 0.29943448785459775 0.29863348799770045 0.29851780594605903 0.2978961899209017 0.29815444938469227 0.30210944985492466 0.3100025856725265 0.33040512155626467 ]
</Nnet>
